-1.792747229337692261e-01 -2.669877409934997559e-01 4.634634256362915039e-01 1.903435140848159790e-01 -3.110543489456176758e-01 -2.392089515924453735e-01
1.125363931059837341e-01 1.180300340056419373e-01 -2.925634086132049561e-01 -9.016256034374237061e-02 -3.344803154468536377e-01 2.476797699928283691e-01
-2.029348462820053101e-01 -1.968857198953628540e-01 4.379805549979209900e-02 -7.186805363744497299e-03 1.556999087333679199e-01 -1.095545962452888489e-01
-3.934139609336853027e-01 -3.538789153099060059e-01 -2.548999190330505371e-01 -7.960498332977294922e-03 2.877197861671447754e-01 -8.610630035400390625e-02
-4.289610385894775391e-01 -4.523608386516571045e-01 3.177303671836853027e-01 -2.451607137918472290e-01 -2.735860049724578857e-01 -3.976188898086547852e-01
-1.098836287856101990e-01 -1.341214179992675781e-01 2.504781354218721390e-03 1.991835832595825195e-01 6.687261164188385010e-02 4.786227643489837646e-02
1.218337416648864746e-01 -2.666927576065063477e-01 -5.685079097747802734e-02 2.876228094100952148e-01 1.255802512168884277e-01 -4.771271347999572754e-02
-2.818833887577056885e-01 1.428128480911254883e-01 2.711411118507385254e-01 1.430048346519470215e-01 1.058557033538818359e-01 8.573323488235473633e-02
